digraph Tree {
node [shape=box] ;
0 [label="女性 <= 0.5\ngini = 0.446\nsamples = 1050\nvalue = [698, 352]"] ;
1 [label="age <= 12.0\ngini = 0.266\nsamples = 684\nvalue = [576, 108]"] ;
0 -> 1 [labeldistance=2.5, labelangle=45, headlabel="True"] ;
2 [label="pclass=3rd <= 0.5\ngini = 0.34\nsamples = 23\nvalue = [5, 18]"] ;
1 -> 2 ;
3 [label="gini = 0.0\nsamples = 14\nvalue = [0, 14]"] ;
2 -> 3 ;
4 [label="age <= 3.5\ngini = 0.494\nsamples = 9\nvalue = [5, 4]"] ;
2 -> 4 ;
5 [label="gini = 0.0\nsamples = 2\nvalue = [0, 2]"] ;
4 -> 5 ;
6 [label="age <= 7.5\ngini = 0.408\nsamples = 7\nvalue = [5, 2]"] ;
4 -> 6 ;
7 [label="gini = 0.0\nsamples = 3\nvalue = [3, 0]"] ;
6 -> 7 ;
8 [label="gini = 0.5\nsamples = 4\nvalue = [2, 2]"] ;
6 -> 8 ;
9 [label="pclass=1st <= 0.5\ngini = 0.235\nsamples = 661\nvalue = [571, 90]"] ;
1 -> 9 ;
10 [label="age <= 18.5\ngini = 0.175\nsamples = 526\nvalue = [475, 51]"] ;
9 -> 10 ;
11 [label="gini = 0.0\nsamples = 19\nvalue = [19, 0]"] ;
10 -> 11 ;
12 [label="age <= 20.5\ngini = 0.181\nsamples = 507\nvalue = [456, 51]"] ;
10 -> 12 ;
13 [label="pclass=2nd <= 0.5\ngini = 0.32\nsamples = 20\nvalue = [16, 4]"] ;
12 -> 13 ;
14 [label="age <= 19.5\ngini = 0.245\nsamples = 14\nvalue = [12, 2]"] ;
13 -> 14 ;
15 [label="gini = 0.245\nsamples = 7\nvalue = [6, 1]"] ;
14 -> 15 ;
16 [label="gini = 0.245\nsamples = 7\nvalue = [6, 1]"] ;
14 -> 16 ;
17 [label="age <= 19.5\ngini = 0.444\nsamples = 6\nvalue = [4, 2]"] ;
13 -> 17 ;
18 [label="gini = 0.5\nsamples = 2\nvalue = [1, 1]"] ;
17 -> 18 ;
19 [label="gini = 0.375\nsamples = 4\nvalue = [3, 1]"] ;
17 -> 19 ;
20 [label="age <= 45.5\ngini = 0.174\nsamples = 487\nvalue = [440, 47]"] ;
12 -> 20 ;
21 [label="age <= 44.5\ngini = 0.18\nsamples = 471\nvalue = [424, 47]"] ;
20 -> 21 ;
22 [label="age <= 32.5\ngini = 0.177\nsamples = 468\nvalue = [422, 46]"] ;
21 -> 22 ;
23 [label="age <= 31.597\ngini = 0.184\nsamples = 428\nvalue = [384, 44]"] ;
22 -> 23 ;
24 [label="pclass=3rd <= 0.5\ngini = 0.176\nsamples = 420\nvalue = [379, 41]"] ;
23 -> 24 ;
25 [label="age <= 26.5\ngini = 0.134\nsamples = 83\nvalue = [77, 6]"] ;
24 -> 25 ;
26 [label="age <= 25.5\ngini = 0.211\nsamples = 25\nvalue = [22, 3]"] ;
25 -> 26 ;
27 [label="age <= 24.5\ngini = 0.172\nsamples = 21\nvalue = [19, 2]"] ;
26 -> 27 ;
28 [label="age <= 23.5\ngini = 0.219\nsamples = 16\nvalue = [14, 2]"] ;
27 -> 28 ;
29 [label="age <= 22.5\ngini = 0.142\nsamples = 13\nvalue = [12, 1]"] ;
28 -> 29 ;
30 [label="gini = 0.245\nsamples = 7\nvalue = [6, 1]"] ;
29 -> 30 ;
31 [label="gini = 0.0\nsamples = 6\nvalue = [6, 0]"] ;
29 -> 31 ;
32 [label="gini = 0.444\nsamples = 3\nvalue = [2, 1]"] ;
28 -> 32 ;
33 [label="gini = 0.0\nsamples = 5\nvalue = [5, 0]"] ;
27 -> 33 ;
34 [label="gini = 0.375\nsamples = 4\nvalue = [3, 1]"] ;
26 -> 34 ;
35 [label="age <= 29.5\ngini = 0.098\nsamples = 58\nvalue = [55, 3]"] ;
25 -> 35 ;
36 [label="gini = 0.0\nsamples = 10\nvalue = [10, 0]"] ;
35 -> 36 ;
37 [label="age <= 30.5\ngini = 0.117\nsamples = 48\nvalue = [45, 3]"] ;
35 -> 37 ;
38 [label="gini = 0.18\nsamples = 10\nvalue = [9, 1]"] ;
37 -> 38 ;
39 [label="age <= 31.097\ngini = 0.1\nsamples = 38\nvalue = [36, 2]"] ;
37 -> 39 ;
40 [label="gini = 0.0\nsamples = 1\nvalue = [1, 0]"] ;
39 -> 40 ;
41 [label="gini = 0.102\nsamples = 37\nvalue = [35, 2]"] ;
39 -> 41 ;
42 [label="age <= 29.5\ngini = 0.186\nsamples = 337\nvalue = [302, 35]"] ;
24 -> 42 ;
43 [label="age <= 24.5\ngini = 0.105\nsamples = 36\nvalue = [34, 2]"] ;
42 -> 43 ;
44 [label="age <= 21.5\ngini = 0.208\nsamples = 17\nvalue = [15, 2]"] ;
43 -> 44 ;
45 [label="gini = 0.32\nsamples = 5\nvalue = [4, 1]"] ;
44 -> 45 ;
46 [label="age <= 23.5\ngini = 0.153\nsamples = 12\nvalue = [11, 1]"] ;
44 -> 46 ;
47 [label="gini = 0.0\nsamples = 7\nvalue = [7, 0]"] ;
46 -> 47 ;
48 [label="gini = 0.32\nsamples = 5\nvalue = [4, 1]"] ;
46 -> 48 ;
49 [label="gini = 0.0\nsamples = 19\nvalue = [19, 0]"] ;
43 -> 49 ;
50 [label="age <= 30.5\ngini = 0.195\nsamples = 301\nvalue = [268, 33]"] ;
42 -> 50 ;
51 [label="gini = 0.444\nsamples = 3\nvalue = [2, 1]"] ;
50 -> 51 ;
52 [label="age <= 31.097\ngini = 0.192\nsamples = 298\nvalue = [266, 32]"] ;
50 -> 52 ;
53 [label="gini = 0.0\nsamples = 2\nvalue = [2, 0]"] ;
52 -> 53 ;
54 [label="gini = 0.193\nsamples = 296\nvalue = [264, 32]"] ;
52 -> 54 ;
55 [label="pclass=3rd <= 0.5\ngini = 0.469\nsamples = 8\nvalue = [5, 3]"] ;
23 -> 55 ;
56 [label="gini = 0.5\nsamples = 4\nvalue = [2, 2]"] ;
55 -> 56 ;
57 [label="gini = 0.375\nsamples = 4\nvalue = [3, 1]"] ;
55 -> 57 ;
58 [label="age <= 35.5\ngini = 0.095\nsamples = 40\nvalue = [38, 2]"] ;
22 -> 58 ;
59 [label="gini = 0.0\nsamples = 15\nvalue = [15, 0]"] ;
58 -> 59 ;
60 [label="age <= 37.0\ngini = 0.147\nsamples = 25\nvalue = [23, 2]"] ;
58 -> 60 ;
61 [label="pclass=2nd <= 0.5\ngini = 0.375\nsamples = 4\nvalue = [3, 1]"] ;
60 -> 61 ;
62 [label="gini = 0.5\nsamples = 2\nvalue = [1, 1]"] ;
61 -> 62 ;
63 [label="gini = 0.0\nsamples = 2\nvalue = [2, 0]"] ;
61 -> 63 ;
64 [label="pclass=3rd <= 0.5\ngini = 0.091\nsamples = 21\nvalue = [20, 1]"] ;
60 -> 64 ;
65 [label="age <= 41.5\ngini = 0.198\nsamples = 9\nvalue = [8, 1]"] ;
64 -> 65 ;
66 [label="age <= 40.5\ngini = 0.32\nsamples = 5\nvalue = [4, 1]"] ;
65 -> 66 ;
67 [label="gini = 0.0\nsamples = 3\nvalue = [3, 0]"] ;
66 -> 67 ;
68 [label="gini = 0.5\nsamples = 2\nvalue = [1, 1]"] ;
66 -> 68 ;
69 [label="gini = 0.0\nsamples = 4\nvalue = [4, 0]"] ;
65 -> 69 ;
70 [label="gini = 0.0\nsamples = 12\nvalue = [12, 0]"] ;
64 -> 70 ;
71 [label="pclass=3rd <= 0.5\ngini = 0.444\nsamples = 3\nvalue = [2, 1]"] ;
21 -> 71 ;
72 [label="gini = 0.0\nsamples = 1\nvalue = [1, 0]"] ;
71 -> 72 ;
73 [label="gini = 0.5\nsamples = 2\nvalue = [1, 1]"] ;
71 -> 73 ;
74 [label="gini = 0.0\nsamples = 16\nvalue = [16, 0]"] ;
20 -> 74 ;
75 [label="age <= 60.5\ngini = 0.411\nsamples = 135\nvalue = [96, 39]"] ;
9 -> 75 ;
76 [label="age <= 17.5\ngini = 0.429\nsamples = 125\nvalue = [86, 39]"] ;
75 -> 76 ;
77 [label="gini = 0.0\nsamples = 1\nvalue = [0, 1]"] ;
76 -> 77 ;
78 [label="age <= 59.0\ngini = 0.425\nsamples = 124\nvalue = [86, 38]"] ;
76 -> 78 ;
79 [label="age <= 54.5\ngini = 0.421\nsamples = 123\nvalue = [86, 37]"] ;
78 -> 79 ;
80 [label="age <= 47.5\ngini = 0.432\nsamples = 114\nvalue = [78, 36]"] ;
79 -> 80 ;
81 [label="age <= 45.5\ngini = 0.408\nsamples = 98\nvalue = [70, 28]"] ;
80 -> 81 ;
82 [label="age <= 33.5\ngini = 0.426\nsamples = 91\nvalue = [63, 28]"] ;
81 -> 82 ;
83 [label="age <= 28.5\ngini = 0.397\nsamples = 66\nvalue = [48, 18]"] ;
82 -> 83 ;
84 [label="age <= 25.5\ngini = 0.49\nsamples = 14\nvalue = [8, 6]"] ;
83 -> 84 ;
85 [label="age <= 20.0\ngini = 0.375\nsamples = 8\nvalue = [6, 2]"] ;
84 -> 85 ;
86 [label="gini = 0.0\nsamples = 2\nvalue = [2, 0]"] ;
85 -> 86 ;
87 [label="age <= 24.5\ngini = 0.444\nsamples = 6\nvalue = [4, 2]"] ;
85 -> 87 ;
88 [label="age <= 22.5\ngini = 0.48\nsamples = 5\nvalue = [3, 2]"] ;
87 -> 88 ;
89 [label="gini = 0.5\nsamples = 2\nvalue = [1, 1]"] ;
88 -> 89 ;
90 [label="gini = 0.444\nsamples = 3\nvalue = [2, 1]"] ;
88 -> 90 ;
91 [label="gini = 0.0\nsamples = 1\nvalue = [1, 0]"] ;
87 -> 91 ;
92 [label="age <= 26.5\ngini = 0.444\nsamples = 6\nvalue = [2, 4]"] ;
84 -> 92 ;
93 [label="gini = 0.0\nsamples = 1\nvalue = [0, 1]"] ;
92 -> 93 ;
94 [label="age <= 27.5\ngini = 0.48\nsamples = 5\nvalue = [2, 3]"] ;
92 -> 94 ;
95 [label="gini = 0.5\nsamples = 2\nvalue = [1, 1]"] ;
94 -> 95 ;
96 [label="gini = 0.444\nsamples = 3\nvalue = [1, 2]"] ;
94 -> 96 ;
97 [label="age <= 30.5\ngini = 0.355\nsamples = 52\nvalue = [40, 12]"] ;
83 -> 97 ;
98 [label="gini = 0.0\nsamples = 5\nvalue = [5, 0]"] ;
97 -> 98 ;
99 [label="age <= 32.5\ngini = 0.38\nsamples = 47\nvalue = [35, 12]"] ;
97 -> 99 ;
100 [label="age <= 31.597\ngini = 0.391\nsamples = 45\nvalue = [33, 12]"] ;
99 -> 100 ;
101 [label="age <= 31.097\ngini = 0.375\nsamples = 44\nvalue = [33, 11]"] ;
100 -> 101 ;
102 [label="gini = 0.444\nsamples = 3\nvalue = [2, 1]"] ;
101 -> 102 ;
103 [label="gini = 0.369\nsamples = 41\nvalue = [31, 10]"] ;
101 -> 103 ;
104 [label="gini = 0.0\nsamples = 1\nvalue = [0, 1]"] ;
100 -> 104 ;
105 [label="gini = 0.0\nsamples = 2\nvalue = [2, 0]"] ;
99 -> 105 ;
106 [label="age <= 35.5\ngini = 0.48\nsamples = 25\nvalue = [15, 10]"] ;
82 -> 106 ;
107 [label="gini = 0.0\nsamples = 2\nvalue = [0, 2]"] ;
106 -> 107 ;
108 [label="age <= 38.5\ngini = 0.454\nsamples = 23\nvalue = [15, 8]"] ;
106 -> 108 ;
109 [label="age <= 36.5\ngini = 0.496\nsamples = 11\nvalue = [6, 5]"] ;
108 -> 109 ;
110 [label="gini = 0.5\nsamples = 6\nvalue = [3, 3]"] ;
109 -> 110 ;
111 [label="age <= 37.5\ngini = 0.48\nsamples = 5\nvalue = [3, 2]"] ;
109 -> 111 ;
112 [label="gini = 0.444\nsamples = 3\nvalue = [2, 1]"] ;
111 -> 112 ;
113 [label="gini = 0.5\nsamples = 2\nvalue = [1, 1]"] ;
111 -> 113 ;
114 [label="age <= 39.5\ngini = 0.375\nsamples = 12\nvalue = [9, 3]"] ;
108 -> 114 ;
115 [label="gini = 0.444\nsamples = 3\nvalue = [2, 1]"] ;
114 -> 115 ;
116 [label="age <= 41.5\ngini = 0.346\nsamples = 9\nvalue = [7, 2]"] ;
114 -> 116 ;
117 [label="gini = 0.0\nsamples = 2\nvalue = [2, 0]"] ;
116 -> 117 ;
118 [label="age <= 43.5\ngini = 0.408\nsamples = 7\nvalue = [5, 2]"] ;
116 -> 118 ;
119 [label="gini = 0.444\nsamples = 3\nvalue = [2, 1]"] ;
118 -> 119 ;
120 [label="gini = 0.375\nsamples = 4\nvalue = [3, 1]"] ;
118 -> 120 ;
121 [label="gini = 0.0\nsamples = 7\nvalue = [7, 0]"] ;
81 -> 121 ;
122 [label="age <= 49.5\ngini = 0.5\nsamples = 16\nvalue = [8, 8]"] ;
80 -> 122 ;
123 [label="age <= 48.5\ngini = 0.375\nsamples = 8\nvalue = [2, 6]"] ;
122 -> 123 ;
124 [label="gini = 0.444\nsamples = 3\nvalue = [1, 2]"] ;
123 -> 124 ;
125 [label="gini = 0.32\nsamples = 5\nvalue = [1, 4]"] ;
123 -> 125 ;
126 [label="age <= 51.5\ngini = 0.375\nsamples = 8\nvalue = [6, 2]"] ;
122 -> 126 ;
127 [label="gini = 0.0\nsamples = 3\nvalue = [3, 0]"] ;
126 -> 127 ;
128 [label="age <= 53.0\ngini = 0.48\nsamples = 5\nvalue = [3, 2]"] ;
126 -> 128 ;
129 [label="gini = 0.5\nsamples = 2\nvalue = [1, 1]"] ;
128 -> 129 ;
130 [label="gini = 0.444\nsamples = 3\nvalue = [2, 1]"] ;
128 -> 130 ;
131 [label="age <= 55.5\ngini = 0.198\nsamples = 9\nvalue = [8, 1]"] ;
79 -> 131 ;
132 [label="gini = 0.0\nsamples = 3\nvalue = [3, 0]"] ;
131 -> 132 ;
133 [label="age <= 56.5\ngini = 0.278\nsamples = 6\nvalue = [5, 1]"] ;
131 -> 133 ;
134 [label="gini = 0.444\nsamples = 3\nvalue = [2, 1]"] ;
133 -> 134 ;
135 [label="gini = 0.0\nsamples = 3\nvalue = [3, 0]"] ;
133 -> 135 ;
136 [label="gini = 0.0\nsamples = 1\nvalue = [0, 1]"] ;
78 -> 136 ;
137 [label="gini = 0.0\nsamples = 10\nvalue = [10, 0]"] ;
75 -> 137 ;
138 [label="pclass=3rd <= 0.5\ngini = 0.444\nsamples = 366\nvalue = [122, 244]"] ;
0 -> 138 [labeldistance=2.5, labelangle=-45, headlabel="False"] ;
139 [label="age <= 38.5\ngini = 0.132\nsamples = 197\nvalue = [14, 183]"] ;
138 -> 139 ;
140 [label="age <= 37.5\ngini = 0.16\nsamples = 148\nvalue = [13, 135]"] ;
139 -> 140 ;
141 [label="age <= 17.5\ngini = 0.151\nsamples = 146\nvalue = [12, 134]"] ;
140 -> 141 ;
142 [label="gini = 0.0\nsamples = 16\nvalue = [0, 16]"] ;
141 -> 142 ;
143 [label="age <= 30.5\ngini = 0.168\nsamples = 130\nvalue = [12, 118]"] ;
141 -> 143 ;
144 [label="age <= 29.5\ngini = 0.211\nsamples = 50\nvalue = [6, 44]"] ;
143 -> 144 ;
145 [label="age <= 25.5\ngini = 0.165\nsamples = 44\nvalue = [4, 40]"] ;
144 -> 145 ;
146 [label="age <= 24.5\ngini = 0.219\nsamples = 32\nvalue = [4, 28]"] ;
145 -> 146 ;
147 [label="pclass=1st <= 0.5\ngini = 0.18\nsamples = 30\nvalue = [3, 27]"] ;
146 -> 147 ;
148 [label="age <= 21.5\ngini = 0.291\nsamples = 17\nvalue = [3, 14]"] ;
147 -> 148 ;
149 [label="age <= 18.5\ngini = 0.18\nsamples = 10\nvalue = [1, 9]"] ;
148 -> 149 ;
150 [label="gini = 0.375\nsamples = 4\nvalue = [1, 3]"] ;
149 -> 150 ;
151 [label="gini = 0.0\nsamples = 6\nvalue = [0, 6]"] ;
149 -> 151 ;
152 [label="age <= 22.5\ngini = 0.408\nsamples = 7\nvalue = [2, 5]"] ;
148 -> 152 ;
153 [label="gini = 0.5\nsamples = 4\nvalue = [2, 2]"] ;
152 -> 153 ;
154 [label="gini = 0.0\nsamples = 3\nvalue = [0, 3]"] ;
152 -> 154 ;
155 [label="gini = 0.0\nsamples = 13\nvalue = [0, 13]"] ;
147 -> 155 ;
156 [label="pclass=2nd <= 0.5\ngini = 0.5\nsamples = 2\nvalue = [1, 1]"] ;
146 -> 156 ;
157 [label="gini = 0.0\nsamples = 1\nvalue = [1, 0]"] ;
156 -> 157 ;
158 [label="gini = 0.0\nsamples = 1\nvalue = [0, 1]"] ;
156 -> 158 ;
159 [label="gini = 0.0\nsamples = 12\nvalue = [0, 12]"] ;
145 -> 159 ;
160 [label="pclass=1st <= 0.5\ngini = 0.444\nsamples = 6\nvalue = [2, 4]"] ;
144 -> 160 ;
161 [label="gini = 0.48\nsamples = 5\nvalue = [2, 3]"] ;
160 -> 161 ;
162 [label="gini = 0.0\nsamples = 1\nvalue = [0, 1]"] ;
160 -> 162 ;
163 [label="age <= 31.097\ngini = 0.139\nsamples = 80\nvalue = [6, 74]"] ;
143 -> 163 ;
164 [label="gini = 0.0\nsamples = 4\nvalue = [0, 4]"] ;
163 -> 164 ;
165 [label="age <= 31.597\ngini = 0.145\nsamples = 76\nvalue = [6, 70]"] ;
163 -> 165 ;
166 [label="pclass=2nd <= 0.5\ngini = 0.163\nsamples = 56\nvalue = [5, 51]"] ;
165 -> 166 ;
167 [label="gini = 0.153\nsamples = 36\nvalue = [3, 33]"] ;
166 -> 167 ;
168 [label="gini = 0.18\nsamples = 20\nvalue = [2, 18]"] ;
166 -> 168 ;
169 [label="pclass=1st <= 0.5\ngini = 0.095\nsamples = 20\nvalue = [1, 19]"] ;
165 -> 169 ;
170 [label="gini = 0.0\nsamples = 10\nvalue = [0, 10]"] ;
169 -> 170 ;
171 [label="age <= 35.5\ngini = 0.18\nsamples = 10\nvalue = [1, 9]"] ;
169 -> 171 ;
172 [label="gini = 0.0\nsamples = 4\nvalue = [0, 4]"] ;
171 -> 172 ;
173 [label="age <= 36.5\ngini = 0.278\nsamples = 6\nvalue = [1, 5]"] ;
171 -> 173 ;
174 [label="gini = 0.32\nsamples = 5\nvalue = [1, 4]"] ;
173 -> 174 ;
175 [label="gini = 0.0\nsamples = 1\nvalue = [0, 1]"] ;
173 -> 175 ;
176 [label="pclass=2nd <= 0.5\ngini = 0.5\nsamples = 2\nvalue = [1, 1]"] ;
140 -> 176 ;
177 [label="gini = 0.0\nsamples = 1\nvalue = [0, 1]"] ;
176 -> 177 ;
178 [label="gini = 0.0\nsamples = 1\nvalue = [1, 0]"] ;
176 -> 178 ;
179 [label="age <= 49.5\ngini = 0.04\nsamples = 49\nvalue = [1, 48]"] ;
139 -> 179 ;
180 [label="gini = 0.0\nsamples = 26\nvalue = [0, 26]"] ;
179 -> 180 ;
181 [label="age <= 50.5\ngini = 0.083\nsamples = 23\nvalue = [1, 22]"] ;
179 -> 181 ;
182 [label="pclass=2nd <= 0.5\ngini = 0.278\nsamples = 6\nvalue = [1, 5]"] ;
181 -> 182 ;
183 [label="gini = 0.444\nsamples = 3\nvalue = [1, 2]"] ;
182 -> 183 ;
184 [label="gini = 0.0\nsamples = 3\nvalue = [0, 3]"] ;
182 -> 184 ;
185 [label="gini = 0.0\nsamples = 17\nvalue = [0, 17]"] ;
181 -> 185 ;
186 [label="age <= 19.5\ngini = 0.461\nsamples = 169\nvalue = [108, 61]"] ;
138 -> 186 ;
187 [label="age <= 13.0\ngini = 0.5\nsamples = 22\nvalue = [11, 11]"] ;
186 -> 187 ;
188 [label="age <= 5.5\ngini = 0.346\nsamples = 9\nvalue = [7, 2]"] ;
187 -> 188 ;
189 [label="age <= 1.083\ngini = 0.444\nsamples = 3\nvalue = [1, 2]"] ;
188 -> 189 ;
190 [label="gini = 0.0\nsamples = 1\nvalue = [0, 1]"] ;
189 -> 190 ;
191 [label="age <= 3.5\ngini = 0.5\nsamples = 2\nvalue = [1, 1]"] ;
189 -> 191 ;
192 [label="gini = 0.0\nsamples = 1\nvalue = [1, 0]"] ;
191 -> 192 ;
193 [label="gini = 0.0\nsamples = 1\nvalue = [0, 1]"] ;
191 -> 193 ;
194 [label="gini = 0.0\nsamples = 6\nvalue = [6, 0]"] ;
188 -> 194 ;
195 [label="age <= 15.5\ngini = 0.426\nsamples = 13\nvalue = [4, 9]"] ;
187 -> 195 ;
196 [label="gini = 0.0\nsamples = 1\nvalue = [0, 1]"] ;
195 -> 196 ;
197 [label="age <= 18.5\ngini = 0.444\nsamples = 12\nvalue = [4, 8]"] ;
195 -> 197 ;
198 [label="age <= 17.5\ngini = 0.463\nsamples = 11\nvalue = [4, 7]"] ;
197 -> 198 ;
199 [label="age <= 16.5\ngini = 0.444\nsamples = 6\nvalue = [2, 4]"] ;
198 -> 199 ;
200 [label="gini = 0.444\nsamples = 3\nvalue = [1, 2]"] ;
199 -> 200 ;
201 [label="gini = 0.444\nsamples = 3\nvalue = [1, 2]"] ;
199 -> 201 ;
202 [label="gini = 0.48\nsamples = 5\nvalue = [2, 3]"] ;
198 -> 202 ;
203 [label="gini = 0.0\nsamples = 1\nvalue = [0, 1]"] ;
197 -> 203 ;
204 [label="age <= 21.5\ngini = 0.449\nsamples = 147\nvalue = [97, 50]"] ;
186 -> 204 ;
205 [label="gini = 0.0\nsamples = 3\nvalue = [3, 0]"] ;
204 -> 205 ;
206 [label="age <= 23.5\ngini = 0.453\nsamples = 144\nvalue = [94, 50]"] ;
204 -> 206 ;
207 [label="age <= 22.5\ngini = 0.444\nsamples = 3\nvalue = [1, 2]"] ;
206 -> 207 ;
208 [label="gini = 0.5\nsamples = 2\nvalue = [1, 1]"] ;
207 -> 208 ;
209 [label="gini = 0.0\nsamples = 1\nvalue = [0, 1]"] ;
207 -> 209 ;
210 [label="age <= 29.0\ngini = 0.449\nsamples = 141\nvalue = [93, 48]"] ;
206 -> 210 ;
211 [label="gini = 0.0\nsamples = 3\nvalue = [3, 0]"] ;
210 -> 211 ;
212 [label="age <= 30.597\ngini = 0.454\nsamples = 138\nvalue = [90, 48]"] ;
210 -> 212 ;
213 [label="gini = 0.444\nsamples = 3\nvalue = [1, 2]"] ;
212 -> 213 ;
214 [label="age <= 32.5\ngini = 0.449\nsamples = 135\nvalue = [89, 46]"] ;
212 -> 214 ;
215 [label="age <= 31.597\ngini = 0.441\nsamples = 122\nvalue = [82, 40]"] ;
214 -> 215 ;
216 [label="gini = 0.443\nsamples = 121\nvalue = [81, 40]"] ;
215 -> 216 ;
217 [label="gini = 0.0\nsamples = 1\nvalue = [1, 0]"] ;
215 -> 217 ;
218 [label="age <= 36.5\ngini = 0.497\nsamples = 13\nvalue = [7, 6]"] ;
214 -> 218 ;
219 [label="gini = 0.0\nsamples = 4\nvalue = [0, 4]"] ;
218 -> 219 ;
220 [label="age <= 37.5\ngini = 0.346\nsamples = 9\nvalue = [7, 2]"] ;
218 -> 220 ;
221 [label="gini = 0.0\nsamples = 1\nvalue = [1, 0]"] ;
220 -> 221 ;
222 [label="age <= 38.5\ngini = 0.375\nsamples = 8\nvalue = [6, 2]"] ;
220 -> 222 ;
223 [label="gini = 0.5\nsamples = 2\nvalue = [1, 1]"] ;
222 -> 223 ;
224 [label="age <= 44.0\ngini = 0.278\nsamples = 6\nvalue = [5, 1]"] ;
222 -> 224 ;
225 [label="gini = 0.0\nsamples = 3\nvalue = [3, 0]"] ;
224 -> 225 ;
226 [label="age <= 46.5\ngini = 0.444\nsamples = 3\nvalue = [2, 1]"] ;
224 -> 226 ;
227 [label="gini = 0.5\nsamples = 2\nvalue = [1, 1]"] ;
226 -> 227 ;
228 [label="gini = 0.0\nsamples = 1\nvalue = [1, 0]"] ;
226 -> 228 ;
}